28 28
-0.001 0.000 0.000 0.000 0.000 0.000 0.000 0.000 0.000 0.000 0.000 0.000 0.000 0.000 0.000 0.000 0.000 0.000 0.000 0.000 0.000 0.000 0.000 0.000 0.000 0.000 0.000 0.000 0.000 0.000 0.000 0.000 0.000 0.000 0.000 0.000 0.000 0.000 0.000 0.000 0.000 0.000 0.000 0.000 0.000 0.000 0.000 0.000 0.000 0.000 0.000 0.000 0.000 0.000 0.000 0.000 0.000 0.000 0.000 0.000 0.000 0.000 0.000 0.000 0.000 0.000 0.000 0.000 0.000 0.000 0.000 0.000 0.000 0.000 0.000 0.000 0.000 0.000 0.000 0.000 0.000 0.000 0.000 0.000 0.000 0.000 0.000 0.000 0.000 0.000 0.000 0.000 0.000 -0.078 -0.166 -0.166 -0.227 -0.157 0.126 0.711 0.853 0.421 0.320 0.243 0.195 0.206 0.296 0.243 0.088 0.128 0.037 0.000 0.000 0.000 0.000 0.000 0.000 0.000 0.000 0.008 -0.100 -0.170 -0.333 -0.656 -0.473 0.649 1.920 2.146 2.528 2.676 2.984 2.556 1.883 0.873 0.576 0.283 -0.106 -0.095 -0.006 0.000 0.000 0.000 0.000 0.000 0.000 0.000 -0.064 -0.187 -0.108 0.124 -0.220 -0.536 -0.688 -0.458 -1.055 -0.794 -0.971 -0.504 0.267 0.668 0.920 -0.020 -0.176 -0.430 -0.930 -0.567 -0.127 0.000 0.000 0.000 0.000 0.000 0.000 0.000 -0.092 -0.148 0.058 -0.294 -1.293 -2.445 -2.091 -3.028 -3.842 -2.771 -1.023 1.109 0.964 0.490 -0.477 -0.885 0.008 -0.708 -1.424 -1.224 -0.254 0.000 0.000 0.000 0.000 0.000 0.000 0.000 -0.099 0.115 -0.203 -1.508 -3.632 -4.373 -4.816 -4.512 -1.628 1.011 3.548 3.400 2.886 1.931 -0.332 -0.702 -0.055 -0.627 -1.883 -1.155 -0.120 -0.005 0.000 0.000 0.000 0.000 0.000 0.000 0.040 0.168 -1.099 -3.361 -4.722 -5.227 -4.228 -1.223 2.539 5.913 6.777 5.163 4.038 2.412 0.106 0.486 0.307 -0.637 -2.153 -1.237 -0.170 -0.185 0.000 0.000 0.000 0.000 0.000 0.000 0.264 0.145 -1.174 -3.109 -4.026 -3.089 -0.694 2.877 7.515 8.141 6.703 4.667 2.286 1.321 0.664 0.795 1.131 -0.449 -1.518 -1.623 -0.336 -0.113 0.000 0.000 0.000 0.000 0.000 0.000 0.472 0.217 -0.847 -1.773 -1.764 0.250 2.317 4.658 6.128 4.550 1.163 -0.679 -0.794 -1.663 -0.786 0.069 2.390 1.572 0.167 -1.413 -0.337 -0.026 0.000 0.000 0.000 0.000 0.000 0.041 0.869 0.353 0.374 -0.624 0.926 4.143 3.537 3.483 2.243 -1.134 -4.963 -7.634 -7.186 -4.333 -1.531 1.573 4.639 4.538 2.454 0.237 -0.406 -0.211 0.000 0.000 0.000 0.000 0.000 0.068 0.931 1.464 2.726 2.709 3.744 5.214 2.666 -2.493 -5.695 -8.583 -12.029 -14.323 -10.418 -5.795 -1.371 4.895 7.112 6.503 3.878 1.027 -0.501 -0.226 0.000 0.000 0.000 0.000 0.000 0.102 1.257 3.520 5.732 6.812 6.082 4.108 -1.416 -8.789 -13.446 -15.526 -17.338 -17.251 -12.392 -6.138 1.625 7.483 8.530 7.711 4.725 1.518 -0.176 0.000 0.000 0.000 0.000 0.000 0.000 0.287 2.461 5.784 8.281 9.619 6.829 2.725 -4.992 -12.828 -16.743 -18.985 -19.231 -16.888 -10.508 -2.179 5.750 8.974 8.779 6.863 4.699 2.222 0.096 0.000 0.000 0.000 0.000 0.000 0.000 0.521 3.678 7.261 10.322 9.687 5.984 -0.090 -8.229 -13.494 -17.412 -18.612 -17.946 -13.683 -6.441 2.272 8.367 9.997 8.228 5.439 3.649 1.931 0.143 0.000 0.000 0.000 0.000 0.000 0.000 0.928 4.602 7.867 9.968 8.663 4.202 -3.277 -9.749 -13.725 -15.894 -14.839 -12.533 -9.658 -2.710 5.110 9.918 10.049 6.286 3.726 2.423 1.424 0.123 0.000 0.000 0.000 0.000 0.000 0.007 1.489 4.641 7.043 8.434 7.486 2.381 -4.607 -9.336 -11.847 -10.900 -9.506 -8.250 -5.148 -0.054 5.573 10.263 7.789 4.761 2.946 1.617 0.537 0.062 0.000 0.000 0.000 0.000 0.000 0.034 1.707 3.776 5.666 6.851 6.324 2.263 -4.400 -7.807 -7.086 -4.953 -3.278 -1.466 -0.019 2.435 6.070 7.965 4.970 3.175 1.925 0.950 -0.101 -0.104 0.000 0.000 0.000 0.000 0.000 0.010 1.545 3.027 4.393 5.255 5.913 2.343 -2.526 -3.176 -0.281 2.187 3.359 3.004 3.119 4.789 4.987 3.415 1.892 1.654 0.937 0.241 -0.452 -0.062 0.000 0.000 0.000 0.000 0.000 0.000 0.945 2.469 2.884 3.852 5.002 3.553 1.079 3.126 5.688 6.048 5.182 5.446 3.885 3.695 1.537 0.229 0.470 0.848 0.189 -0.528 -0.317 0.000 0.000 0.000 0.000 0.000 0.000 0.000 0.450 0.930 2.130 2.313 2.418 3.512 3.958 5.659 6.495 5.578 5.202 3.763 1.724 0.021 -1.642 -1.459 -0.675 -0.455 -0.646 -0.479 -0.115 0.000 0.091 0.000 0.000 0.000 0.000 0.000 0.303 -0.136 0.174 0.697 -0.598 0.435 1.600 2.666 2.429 1.776 0.437 -0.582 -2.319 -3.929 -3.859 -2.212 -1.960 -0.761 -0.336 -0.021 -0.002 0.000 0.002 0.000 0.000 0.000 0.000 0.000 0.161 -0.198 -0.642 -0.585 -2.813 -3.611 -2.709 -2.807 -3.522 -4.906 -4.475 -5.087 -5.663 -4.314 -3.054 -2.046 -0.878 -0.115 -0.013 0.000 0.000 0.000 0.000 0.000 0.000 0.000 0.000 0.000 0.029 0.044 -0.274 -0.661 -2.092 -4.689 -5.790 -5.773 -5.470 -5.398 -4.063 -3.451 -2.784 -1.836 -1.426 -0.856 -0.235 -0.001 0.000 0.000 0.000 0.000 0.000 0.000 0.000 0.000 0.000 0.000 0.000 0.000 0.000 0.000 -0.062 -0.386 -0.588 -0.658 -0.641 -0.820 -0.998 -1.013 -0.764 -0.424 -0.108 0.000 0.000 0.000 0.000 0.000 0.000 0.000 0.000 0.000 0.000 0.000 0.000 0.000 0.000 0.000 0.000 0.000 0.000 0.000 0.000 0.000 0.000 0.000 0.000 0.000 0.000 0.000 0.000 0.000 0.000 0.000 0.000 0.000 0.000 0.000 0.000 0.000 0.000 0.000 0.000 0.000 0.000 0.000 0.000 0.000 0.000 0.000 0.000 0.000 0.000 0.000 0.000 0.000 0.000 0.000 0.000 0.000 0.000 0.000 0.000 0.000 0.000 0.000 0.000 0.000 