28 28
0.004 0.000 0.000 0.000 0.000 0.000 0.000 0.000 0.000 0.000 0.000 0.000 0.000 0.000 0.000 0.000 0.000 0.000 0.000 0.000 0.000 0.000 0.000 0.000 0.000 0.000 0.000 0.000 0.000 0.000 0.000 0.000 0.000 0.000 0.000 0.000 0.000 0.000 0.000 0.106 0.215 0.050 0.000 0.076 0.066 0.061 0.116 0.000 0.000 0.000 0.000 0.000 0.000 0.000 0.000 0.000 0.000 0.000 0.000 0.000 0.000 0.000 0.000 0.000 0.000 0.000 0.000 0.277 1.068 1.338 1.765 2.089 3.061 4.189 4.234 3.001 2.138 1.276 0.711 0.319 0.122 0.007 0.000 0.000 0.000 0.000 0.000 0.000 0.000 0.000 0.000 0.080 0.026 0.029 0.364 1.592 2.193 3.436 4.503 5.782 8.487 9.585 8.694 7.325 5.382 3.377 2.156 1.196 0.311 0.042 0.000 0.000 0.000 0.000 0.000 0.000 0.000 0.000 0.061 0.115 -0.134 0.287 1.017 2.262 2.748 3.394 4.199 5.967 8.271 8.204 6.890 5.611 4.441 2.514 1.670 0.891 0.132 -0.092 -0.025 0.000 0.000 0.000 0.000 0.000 0.000 0.000 0.006 -0.091 -0.433 -0.116 0.475 0.370 -1.150 -1.745 -1.407 -0.106 -0.511 -1.378 -3.343 -4.069 -2.980 -1.633 -1.094 -0.587 -0.577 -0.398 -0.194 -0.128 0.000 0.000 0.000 0.000 0.000 0.000 -0.238 -0.826 -0.919 -0.927 -1.261 -2.637 -5.016 -5.273 -3.840 -3.309 -3.931 -7.566 -9.245 -9.995 -9.007 -6.893 -4.650 -2.471 -1.328 -0.789 -0.107 -0.065 0.000 0.000 0.000 0.000 0.000 -0.005 -0.553 -1.061 -0.935 -2.009 -3.914 -5.545 -5.602 -5.404 -2.883 -1.669 -3.862 -7.904 -10.889 -13.155 -11.516 -9.613 -7.109 -4.638 -2.580 -1.012 -0.332 -0.021 0.000 0.000 0.000 0.000 0.000 -0.015 -0.693 -1.567 -1.551 -2.692 -5.797 -6.366 -4.887 -3.078 -0.669 0.898 -2.784 -6.095 -9.771 -11.952 -11.822 -10.666 -8.340 -5.800 -3.268 -1.596 -0.564 0.000 0.000 0.000 0.000 0.000 0.000 -0.292 -0.748 -1.528 -1.934 -3.123 -6.480 -5.157 -3.228 -0.184 3.211 1.443 -1.355 -4.700 -7.759 -10.256 -10.496 -10.088 -8.547 -5.278 -2.873 -1.527 -0.353 0.000 0.000 0.000 0.000 0.000 0.000 -0.387 -0.585 -1.016 -1.654 -3.088 -5.017 -2.526 0.075 1.775 2.596 0.773 -2.626 -5.097 -8.049 -10.281 -10.448 -10.069 -7.195 -3.428 -2.000 -1.095 -0.134 0.000 0.000 0.000 0.000 0.000 0.000 -0.423 -0.521 -0.141 -0.587 -1.720 -2.454 0.570 2.587 0.173 -0.796 -3.592 -6.074 -7.265 -9.238 -10.081 -8.263 -5.793 -2.427 -1.297 -0.564 -0.272 -0.088 0.000 0.000 0.000 0.000 0.000 0.000 -0.162 -0.287 0.299 1.134 0.404 0.608 3.128 3.462 -1.779 -4.979 -7.592 -7.516 -7.828 -6.924 -4.363 -2.005 -0.474 1.210 1.048 0.745 0.140 -0.127 0.000 0.000 0.000 0.000 0.000 0.000 -0.063 -0.001 1.345 2.888 3.364 3.975 6.718 3.031 -4.034 -7.729 -7.867 -6.072 -4.304 -0.540 3.179 4.882 3.891 3.632 3.257 2.340 1.087 -0.139 0.000 0.000 0.000 0.000 0.000 0.000 0.000 0.396 1.896 4.088 5.943 7.902 7.944 2.202 -5.910 -8.253 -6.949 -5.012 -0.580 4.799 8.115 9.294 8.659 5.944 4.510 2.988 1.392 0.088 0.000 0.000 0.000 0.000 0.000 0.000 0.000 0.605 1.755 4.607 7.299 9.514 7.861 1.595 -4.695 -6.312 -5.123 -3.451 -1.244 2.010 6.518 10.491 11.135 8.322 4.971 2.884 1.459 0.417 0.000 0.000 0.000 0.000 0.000 0.000 0.000 0.677 1.424 3.418 6.597 9.302 6.379 1.057 -4.403 -4.709 -3.427 -3.035 -3.319 -1.256 4.735 9.843 10.508 8.096 4.656 2.682 1.363 0.508 0.000 0.000 0.000 0.000 0.000 0.000 0.033 0.546 1.105 2.286 5.601 8.346 7.128 1.632 -1.830 -1.818 -0.733 -2.397 -3.117 -0.990 5.530 9.791 9.060 6.927 3.446 2.173 1.114 0.425 0.000 0.000 0.000 0.000 0.000 -0.018 -0.091 0.213 0.286 0.902 2.427 6.313 6.602 4.759 3.523 2.706 3.100 2.414 1.944 3.812 7.326 8.983 7.620 4.358 2.094 1.426 0.794 0.166 0.000 0.000 0.000 0.000 0.000 -0.148 -0.118 0.009 -0.197 -1.112 -1.606 3.254 6.539 9.537 9.900 8.922 7.893 7.941 8.155 7.564 7.073 6.071 4.621 2.240 1.021 0.653 0.505 0.132 0.000 0.000 0.000 0.000 0.000 -0.156 -0.141 -0.405 -1.459 -3.442 -4.322 -1.912 3.368 9.288 12.030 12.043 11.557 11.480 9.755 5.667 2.891 2.136 0.881 -0.073 -0.263 -0.022 0.254 0.137 0.000 0.000 0.000 0.000 0.000 -0.022 -0.205 -0.692 -2.272 -5.291 -6.557 -6.142 -4.029 1.210 5.338 6.601 6.587 5.388 2.941 -1.847 -2.557 -2.431 -1.801 -0.819 -0.422 0.013 0.218 0.035 0.000 0.000 0.000 0.000 0.000 0.000 0.000 -0.502 -2.546 -5.262 -8.755 -10.459 -12.054 -11.077 -9.288 -9.375 -8.431 -7.687 -8.111 -8.165 -5.495 -3.484 -1.545 -0.586 -0.349 -0.004 0.014 0.000 0.000 0.000 0.000 0.000 0.000 0.000 0.000 -0.074 -1.121 -3.881 -6.859 -9.425 -12.436 -15.121 -16.792 -17.378 -15.359 -12.326 -9.735 -6.678 -3.836 -2.310 -1.124 -0.493 -0.231 -0.014 0.000 0.000 0.000 0.000 0.000 0.000 0.000 0.000 0.000 -0.001 -0.122 -1.242 -3.074 -5.112 -6.810 -8.397 -9.964 -9.634 -8.283 -5.922 -3.890 -2.473 -1.513 -0.691 -0.250 -0.118 -0.070 -0.008 0.000 0.000 0.000 0.000 0.000 0.000 0.000 0.000 0.000 0.000 0.000 -0.247 -0.639 -0.827 -0.857 -0.591 -0.469 -0.748 -0.915 -0.684 -0.566 -0.421 -0.280 -0.041 0.000 0.000 0.000 0.000 0.000 0.000 0.000 0.000 0.000 0.000 0.000 0.000 0.000 0.000 0.000 0.000 0.000 0.000 0.000 0.000 0.000 0.000 0.000 0.000 0.000 0.000 0.000 0.000 0.000 0.000 0.000 0.000 0.000 0.000 0.000 0.000 0.000 0.000 0.000 0.000 0.000 0.000 0.000 0.000 0.000 0.000 0.000 0.000 0.000 0.000 0.000 0.000 0.000 0.000 0.000 0.000 0.000 0.000 0.000 0.000 0.000 0.000 0.000 0.000 