28 28
-0.008 0.000 0.000 0.000 0.000 0.000 0.000 0.000 0.000 0.000 0.000 0.000 0.000 0.000 0.000 0.000 0.000 0.000 0.000 0.000 0.000 0.000 0.000 0.000 0.000 0.000 0.000 0.000 0.000 0.000 0.000 0.000 0.000 0.000 0.000 0.000 0.000 0.000 0.000 0.000 0.000 0.000 0.000 0.000 0.000 0.000 0.000 0.000 0.000 0.000 0.000 0.000 0.000 0.000 0.000 0.000 0.000 0.000 0.000 0.000 0.000 0.000 0.000 0.000 0.000 0.000 0.000 0.000 0.000 0.000 0.000 0.000 0.000 0.000 0.000 0.000 0.000 0.000 0.000 0.000 0.000 0.000 0.000 0.000 0.000 0.000 0.000 0.000 0.000 0.000 0.000 0.000 0.000 0.000 0.000 0.000 0.000 0.000 0.000 0.048 0.121 0.143 0.055 0.004 0.036 0.123 0.128 0.033 0.000 0.000 0.000 0.000 0.000 0.000 0.000 0.000 0.000 0.000 0.000 0.000 0.000 0.026 0.261 0.325 0.144 0.207 0.332 0.843 1.575 1.515 1.293 1.170 1.402 1.181 0.589 0.129 0.000 0.000 0.000 0.000 0.000 0.000 0.000 0.000 0.000 0.000 0.000 0.000 0.000 0.058 0.328 0.213 -0.182 -0.056 0.619 2.228 3.477 3.686 3.208 2.731 2.489 1.910 1.360 0.458 0.030 0.031 0.000 0.000 0.000 0.000 0.000 0.000 0.000 0.000 0.000 -0.022 -0.136 -0.281 -0.404 -0.536 -1.191 -0.590 0.537 1.173 1.034 1.414 2.087 1.792 1.549 1.321 1.153 0.845 0.211 0.066 0.000 0.000 0.000 0.000 0.000 0.000 0.000 0.000 -0.050 -0.385 -0.670 -0.981 -0.989 -1.055 -1.488 -1.359 -0.847 -0.479 -0.760 -1.320 -0.632 1.152 1.559 1.291 0.901 0.814 0.393 0.093 0.000 0.000 0.000 0.000 0.000 0.027 0.000 -0.065 -0.470 -0.720 -0.909 -1.019 -1.183 -0.828 -1.105 -1.197 -0.730 -0.458 -0.132 -0.560 -0.830 0.515 1.422 1.656 1.167 1.039 0.611 0.139 0.000 0.000 0.000 0.000 0.000 0.000 0.000 -0.209 -0.696 -0.927 -0.993 -0.870 -1.276 -1.142 -1.253 0.034 1.226 1.669 0.863 -0.078 -1.018 -0.941 0.155 1.447 1.340 1.262 0.908 0.312 0.000 0.000 0.000 0.000 0.000 0.000 -0.084 -0.398 -0.759 -0.867 -0.922 -1.208 -1.394 -1.204 -0.093 2.155 3.052 2.806 1.234 -1.120 -1.826 -1.913 -0.847 0.929 1.430 1.734 1.466 0.595 0.000 0.000 0.000 0.000 0.000 0.000 -0.002 -0.431 -0.617 -0.718 -1.195 -1.450 -1.566 0.014 1.986 3.299 2.772 1.400 -0.859 -2.487 -3.180 -2.702 -1.264 0.084 1.371 1.918 1.926 0.802 0.000 0.000 0.000 0.000 0.000 0.000 -0.126 -0.352 -0.748 -1.137 -1.064 -1.762 -0.930 1.621 2.855 2.562 0.564 -1.413 -3.329 -4.070 -4.159 -3.311 -2.038 -0.144 1.500 2.387 1.934 0.811 0.010 0.000 0.000 0.000 0.000 0.000 0.003 -0.350 -0.757 -0.966 -0.707 -1.603 -0.068 1.410 1.550 0.098 -1.770 -3.142 -4.060 -5.166 -4.631 -3.788 -1.586 0.227 1.989 2.493 1.973 0.721 0.065 0.000 0.000 0.000 0.000 0.000 -0.015 -0.345 -0.686 -0.051 0.132 -0.523 0.448 0.461 -0.980 -2.629 -3.798 -4.408 -4.832 -6.067 -5.043 -2.699 -0.796 0.856 2.729 2.465 1.572 0.599 0.127 0.000 0.000 0.000 0.000 0.000 -0.018 -0.348 0.053 0.842 1.116 0.990 0.924 -0.405 -2.633 -3.689 -4.137 -4.335 -5.646 -5.977 -3.850 -1.673 0.130 2.085 2.823 1.973 1.019 0.492 0.076 0.000 0.000 0.000 0.000 0.000 -0.018 -0.165 0.728 1.554 1.311 2.051 1.802 0.390 -2.035 -3.166 -3.760 -4.319 -5.268 -4.391 -2.895 -0.869 1.581 2.750 2.574 1.285 0.682 0.371 0.037 0.000 0.000 0.000 0.000 0.000 0.000 0.312 1.239 1.723 1.682 1.773 1.893 0.503 -1.310 -2.767 -2.869 -3.405 -3.677 -3.403 -1.986 0.578 2.531 2.897 1.874 0.994 0.471 0.309 0.012 0.000 0.000 0.000 0.000 0.000 0.000 0.604 1.662 2.056 1.526 1.971 1.973 1.351 -0.103 -1.052 -1.870 -2.284 -2.523 -1.932 0.062 1.978 2.524 2.100 1.192 0.558 0.115 0.151 0.000 0.000 0.000 0.000 0.000 0.000 0.000 0.839 1.860 2.339 2.524 2.968 3.251 2.848 2.006 0.756 -0.582 -0.707 -0.997 0.064 1.077 1.793 1.845 1.477 0.630 0.084 -0.049 0.083 0.000 0.000 0.000 0.000 0.000 0.000 0.000 0.863 1.783 2.420 3.121 3.974 4.142 4.467 3.499 1.334 0.374 0.478 -0.125 0.258 1.138 0.873 0.786 0.606 0.184 -0.126 -0.209 0.065 0.000 0.000 0.000 0.000 0.000 0.000 0.000 0.707 1.465 2.298 3.146 4.609 5.089 4.961 4.055 2.316 1.750 1.371 0.486 0.590 0.504 0.167 -0.061 -0.139 -0.068 -0.338 -0.265 0.063 0.000 0.000 0.000 0.000 0.000 0.000 0.000 0.339 0.730 1.492 2.499 3.590 4.588 4.629 3.683 2.777 2.341 1.564 0.217 -0.204 -0.448 -0.553 -0.605 -0.476 -0.173 -0.353 -0.325 0.000 0.000 0.000 0.000 0.000 0.000 0.000 0.000 0.035 0.145 0.264 0.602 1.454 1.985 2.162 2.046 1.539 1.097 -0.268 -1.205 -1.413 -1.436 -1.506 -0.966 -0.493 -0.107 -0.259 -0.361 -0.005 0.000 0.000 0.000 0.000 0.000 0.000 0.000 0.000 -0.100 -0.299 -0.371 -0.609 -0.724 -0.868 -0.853 -0.803 -0.970 -1.319 -2.064 -2.295 -1.947 -1.595 -0.978 -0.442 -0.045 -0.218 -0.371 -0.015 0.000 0.000 0.000 0.000 0.000 0.000 0.000 0.000 -0.120 -0.384 -0.428 -0.600 -1.187 -1.517 -1.391 -1.453 -1.564 -1.487 -1.437 -1.288 -1.312 -1.028 -0.609 -0.269 -0.037 -0.047 -0.155 0.000 0.000 0.000 0.000 0.000 0.000 0.000 0.000 0.000 0.000 0.000 0.000 -0.052 -0.208 -0.152 -0.247 -0.506 -0.221 -0.448 -0.550 -0.347 -0.382 -0.502 -0.275 -0.098 0.000 0.000 0.000 0.000 0.000 0.000 0.000 0.000 0.000 0.000 0.000 0.000 0.000 0.000 0.000 0.000 0.000 0.000 0.000 0.000 0.000 0.000 0.000 0.000 0.000 0.000 0.000 0.000 0.000 0.000 0.000 0.000 0.000 0.000 0.000 