28 28
0.005 0.000 0.000 0.000 0.000 0.000 0.000 0.000 0.000 0.000 0.000 0.000 0.000 0.000 0.000 0.000 0.000 0.000 0.000 0.000 0.000 0.000 0.000 0.000 0.000 0.000 0.000 0.000 0.000 0.000 0.000 0.000 0.000 0.000 0.000 0.000 0.000 0.000 0.000 0.000 0.000 0.000 0.000 0.000 0.000 0.000 0.000 0.000 0.000 0.000 0.000 0.000 0.000 0.000 0.000 0.000 0.000 0.000 0.000 0.000 0.000 0.000 0.000 0.000 0.000 0.000 0.000 0.000 0.000 0.000 0.000 0.000 0.000 0.000 0.000 0.000 0.000 0.000 0.000 0.000 0.000 0.000 0.000 0.000 0.000 0.000 0.000 0.000 0.000 0.000 0.000 0.000 0.000 0.000 0.000 0.000 0.000 0.142 0.203 0.168 0.218 0.164 0.018 0.026 0.092 0.094 0.000 0.000 0.000 0.000 0.000 0.000 0.000 0.000 0.000 0.000 0.000 0.000 0.050 0.011 0.000 0.032 0.135 0.114 0.139 0.564 1.584 2.989 3.042 1.903 1.189 0.613 0.529 0.641 0.517 0.384 0.193 0.000 0.000 0.000 0.000 0.000 0.000 0.000 0.000 0.000 0.194 0.218 0.176 0.208 0.396 0.496 0.426 1.302 2.974 3.943 4.409 3.266 2.254 1.881 2.017 1.786 0.976 0.362 0.204 0.000 0.000 0.000 0.000 0.000 0.000 0.000 -0.021 -0.037 -0.125 -0.081 0.046 -0.275 -0.272 -0.949 -1.224 0.348 2.284 2.824 2.791 1.854 0.861 0.521 1.137 1.131 0.586 0.265 0.084 0.000 0.000 0.000 0.000 0.000 0.000 0.000 -0.072 -0.320 -0.442 -0.697 -0.957 -1.789 -2.930 -4.115 -4.141 -2.910 -0.709 0.633 0.445 -0.528 -1.355 -2.317 -1.597 -0.535 -0.208 -0.207 -0.074 -0.005 0.000 0.000 0.000 0.000 0.000 -0.080 -0.205 -0.555 -0.828 -1.630 -2.197 -2.999 -4.573 -5.894 -6.303 -5.043 -2.184 -1.093 -1.464 -2.366 -3.324 -4.445 -3.373 -2.042 -1.296 -0.738 -0.258 -0.057 0.000 0.000 0.000 0.000 0.000 -0.101 -0.236 -0.597 -1.296 -2.173 -3.046 -4.082 -4.622 -5.306 -5.503 -4.467 -1.380 0.191 -0.246 -2.204 -3.717 -4.724 -4.031 -2.817 -1.764 -0.681 -0.216 -0.067 0.000 0.000 0.000 0.000 0.000 -0.017 -0.098 -0.337 -1.036 -2.078 -2.820 -3.434 -3.727 -4.044 -3.637 -2.258 1.364 2.781 2.657 -0.367 -3.433 -4.721 -4.348 -3.074 -1.587 -0.376 -0.109 -0.015 0.000 0.000 0.000 0.000 0.000 0.000 -0.028 -0.159 -0.564 -1.480 -1.836 -2.493 -2.582 -2.269 -1.584 0.464 4.367 6.361 5.067 0.375 -3.192 -4.662 -4.238 -2.490 -0.788 -0.149 -0.021 0.000 0.000 0.000 0.000 0.000 0.000 0.000 -0.024 -0.143 -0.402 -0.637 -1.079 -1.416 -1.559 -1.279 -0.645 1.246 5.330 7.440 4.668 -0.274 -3.199 -4.688 -4.079 -1.672 -0.497 -0.015 -0.005 0.000 0.000 0.000 0.000 0.000 0.000 0.000 -0.024 -0.191 -0.457 -0.408 -0.650 -0.927 -1.022 -0.593 -0.078 1.285 6.405 7.647 3.501 -1.574 -4.297 -4.882 -3.119 -0.838 -0.229 -0.047 -0.101 -0.051 0.000 0.000 0.000 0.000 0.000 0.000 -0.018 -0.180 -0.252 -0.455 -0.563 -0.713 -0.497 -0.185 0.238 1.833 6.795 6.585 2.481 -2.538 -5.406 -4.886 -2.571 -1.196 -0.513 -0.262 -0.181 -0.009 0.000 0.000 0.000 0.000 0.000 0.000 0.000 -0.116 -0.231 -0.365 -0.599 -0.816 -0.804 -0.494 0.305 2.176 5.689 4.821 1.512 -3.301 -6.035 -4.539 -2.503 -1.462 -1.145 -0.551 -0.278 -0.006 0.000 0.000 0.000 0.000 0.000 0.000 0.000 -0.044 -0.221 -0.290 -0.503 -0.751 -1.085 -0.651 0.185 1.534 3.735 3.247 0.333 -4.077 -5.504 -3.675 -2.040 -1.215 -0.755 -0.457 -0.082 0.000 0.000 0.000 0.000 0.000 0.000 0.000 0.000 0.000 -0.042 -0.084 -0.250 -0.715 -1.276 -0.593 0.598 0.970 3.126 1.329 -0.645 -3.202 -3.339 -1.908 -0.747 -0.446 -0.296 -0.107 -0.003 0.000 0.000 0.000 0.000 0.000 0.000 0.000 0.000 0.000 0.000 -0.001 -0.036 0.029 -0.215 0.827 1.032 1.646 2.688 0.240 -0.947 -2.111 -2.279 -1.333 -0.657 -0.257 -0.048 -0.010 0.000 0.000 0.000 0.000 0.000 0.000 0.000 0.000 0.000 0.000 0.037 0.155 0.151 0.132 0.631 1.403 1.208 0.841 1.097 0.086 -0.889 -1.065 -1.392 -0.795 -0.273 -0.105 -0.006 0.118 0.024 0.000 0.000 0.000 0.000 0.000 0.000 0.000 0.000 0.010 0.079 0.308 0.284 0.598 1.564 1.741 1.327 -0.036 1.016 0.132 0.590 0.323 0.002 0.217 0.361 0.510 0.254 0.254 0.242 0.071 0.000 0.000 0.000 0.000 0.000 0.000 0.000 0.187 0.466 0.614 0.795 1.010 1.751 1.715 0.809 -0.155 0.850 0.995 1.321 1.188 0.263 0.273 0.426 0.260 0.111 0.087 0.207 0.222 0.000 0.000 0.000 0.000 0.000 0.000 0.000 0.233 0.316 0.563 0.602 0.719 1.495 1.034 -0.108 -0.687 0.542 0.877 0.933 0.834 0.120 0.158 0.284 0.254 0.013 0.000 0.000 0.023 0.000 0.000 0.000 0.000 0.000 0.000 0.000 -0.073 -0.259 -0.380 -0.355 -0.024 0.536 -0.422 -1.921 -2.033 -0.646 0.052 0.243 -0.142 -0.556 -0.202 -0.068 0.044 0.008 0.000 0.000 0.000 0.000 0.000 0.000 0.000 0.000 -0.053 -0.071 -0.135 -0.363 -0.619 -0.802 -0.587 -0.434 -2.024 -3.590 -3.507 -3.404 -3.197 -1.829 -0.875 -1.118 -0.401 -0.147 -0.076 0.000 0.000 0.000 0.000 0.000 0.000 0.000 0.000 0.000 0.000 0.000 0.000 -0.131 -0.363 -0.528 -0.783 -1.605 -2.889 -3.515 -3.416 -2.856 -2.778 -1.938 -1.304 -1.060 -0.344 -0.080 -0.006 0.000 0.000 0.000 0.000 0.000 0.000 0.000 0.000 0.000 0.000 0.000 0.000 0.000 0.000 -0.031 -0.263 -0.444 -1.014 -1.575 -1.374 -1.179 -0.968 -0.861 -0.778 -0.354 -0.097 -0.009 0.000 0.000 0.000 0.000 0.000 0.000 0.000 0.000 0.000 0.000 0.000 0.000 0.000 0.000 0.000 0.000 0.000 -0.060 -0.308 -0.152 -0.071 0.000 -0.061 -0.126 -0.091 -0.006 0.000 0.000 0.000 0.000 0.000 0.000 0.000 0.000 0.000 0.000 