28 28
0.002 0.000 0.000 0.000 0.000 0.000 0.000 0.000 0.000 0.000 0.000 0.000 0.000 0.000 0.000 0.000 0.000 0.000 0.000 0.000 0.000 0.000 0.000 0.000 0.000 0.000 0.000 0.000 0.000 0.000 0.000 0.000 0.000 0.000 0.000 0.000 0.000 0.000 0.000 0.000 0.000 0.000 0.000 0.000 0.000 0.000 0.000 0.000 0.000 0.000 0.000 0.000 0.000 0.000 0.000 0.000 0.000 0.000 0.000 0.000 0.000 0.000 0.000 0.025 0.189 0.254 0.454 0.675 0.508 0.372 0.303 0.295 0.285 0.337 0.295 0.226 0.057 0.000 0.000 0.000 0.000 0.000 0.000 0.000 0.000 0.000 0.000 0.000 0.000 0.000 -0.255 -0.094 0.156 0.519 1.300 2.444 2.533 2.110 1.670 1.215 2.093 2.336 0.906 0.423 0.348 -0.149 -0.157 0.015 0.000 0.000 0.000 0.000 0.000 0.000 0.000 0.000 0.000 0.000 0.109 0.697 0.657 1.427 2.361 3.197 3.524 3.873 3.527 4.084 4.703 4.853 3.706 1.837 0.834 -0.199 -0.469 -0.327 -0.021 -0.003 0.000 0.000 0.000 0.000 0.000 0.000 -0.007 0.055 0.429 0.594 -0.125 1.097 2.920 3.750 4.210 4.412 4.196 3.764 1.556 0.778 1.335 0.393 -0.036 -0.341 -1.345 -0.843 -0.410 -0.187 0.000 0.000 0.000 0.000 0.000 -0.047 -0.106 -0.341 -0.597 0.249 0.815 1.835 2.600 2.242 2.364 2.234 2.705 1.203 -1.553 -2.691 -0.608 -1.441 -1.175 -1.695 -1.649 -1.220 -0.534 -0.347 0.000 0.000 0.000 0.000 0.000 0.000 -0.286 -0.792 -0.125 0.383 1.360 2.568 2.017 1.190 1.592 1.699 1.200 -0.649 -3.439 -4.505 -1.991 -1.212 -1.165 -1.067 -1.366 -1.348 -0.663 -0.282 0.000 0.000 0.000 0.000 0.000 0.000 -0.186 -0.396 1.264 2.263 1.865 2.128 1.886 2.208 0.994 0.194 -0.628 -2.712 -4.385 -2.665 -0.026 1.068 0.556 -1.178 -0.729 -1.048 -0.574 -0.178 0.000 0.000 0.000 0.000 0.000 0.000 -0.157 -0.204 1.463 2.002 1.462 0.906 2.075 3.166 1.110 -1.087 -3.332 -6.298 -6.259 -3.270 0.567 1.060 1.751 -0.217 -0.077 -0.632 -0.328 -0.046 0.000 0.000 0.000 0.000 0.000 0.000 -0.244 0.107 0.550 1.609 1.372 1.503 2.059 0.417 -1.931 -4.280 -7.994 -8.666 -8.214 -4.963 -2.295 0.277 2.914 0.649 1.035 0.313 -0.169 -0.056 0.000 0.000 0.000 0.000 0.000 0.000 -0.104 -0.125 -0.084 0.476 -0.054 -0.002 0.283 -2.579 -6.479 -9.386 -10.825 -11.509 -9.393 -6.094 -4.367 -1.759 2.671 1.350 2.476 0.916 0.222 0.000 0.000 0.000 0.000 0.000 0.000 0.000 0.000 -0.071 -0.012 -0.295 0.086 0.806 -0.934 -5.056 -7.640 -9.950 -11.784 -12.283 -9.969 -9.027 -6.533 -2.256 3.400 3.838 2.974 1.125 0.246 0.105 0.000 0.000 0.000 0.000 0.000 0.000 -0.011 0.069 0.068 0.076 0.298 0.760 -1.552 -5.603 -7.757 -9.980 -10.179 -8.946 -7.328 -7.724 -7.207 -2.024 2.758 3.725 2.389 1.015 0.407 0.184 0.000 0.000 0.000 0.000 0.000 0.000 0.206 0.273 0.271 0.829 1.582 2.009 -0.102 -2.374 -4.563 -5.643 -4.193 -1.432 -0.563 -2.990 -5.021 -2.295 -0.637 0.868 1.419 0.730 0.765 0.427 0.329 0.021 0.000 0.000 0.000 -0.031 0.404 0.408 0.579 2.155 3.608 3.736 3.835 3.382 1.775 2.043 3.525 4.581 2.942 0.299 -1.190 -3.651 -3.769 -1.821 -0.148 0.384 1.397 1.245 0.775 0.120 0.000 0.000 0.000 0.003 0.309 -0.272 0.528 3.583 5.092 6.190 6.512 5.876 7.025 7.816 8.267 7.141 4.746 2.784 0.935 -2.704 -4.688 -3.279 -0.212 1.227 1.681 1.876 1.271 0.212 0.000 0.000 0.000 0.094 -0.543 -1.241 0.761 4.135 6.711 7.960 8.386 9.597 10.875 11.567 10.793 8.620 6.094 2.929 -0.788 -2.748 -3.860 -2.488 0.505 4.172 3.730 2.707 1.108 0.145 0.000 0.000 0.000 -0.059 -1.184 -2.116 -0.999 3.975 6.927 6.633 8.474 10.030 10.180 10.832 9.442 7.954 4.964 0.395 -2.696 -4.049 -2.811 -0.248 2.433 5.375 4.515 2.268 1.040 0.139 0.000 0.000 0.000 -0.131 -1.757 -2.894 -1.303 2.578 5.099 4.647 7.396 10.529 10.646 10.822 9.406 5.438 2.240 -0.356 -3.149 -4.196 -1.703 1.506 5.215 6.758 5.469 3.024 1.287 0.042 0.000 0.000 0.000 0.017 -1.908 -2.829 -2.807 0.896 3.159 3.305 6.113 8.788 8.830 8.514 6.004 2.016 -0.280 -1.909 -2.598 -2.723 -0.455 3.676 7.494 6.913 5.839 3.958 1.730 0.283 0.000 0.000 0.000 0.115 -0.949 -2.230 -3.464 -1.093 -0.580 -0.150 1.685 3.663 4.550 3.186 1.137 -1.229 -2.536 -2.993 -0.609 1.056 3.361 5.476 6.793 6.597 5.431 3.493 1.237 0.190 0.000 0.000 0.000 0.016 -0.155 -0.473 -2.153 -2.463 -3.154 -2.521 -1.963 -2.415 -3.540 -5.352 -6.258 -5.928 -4.006 -2.164 -0.490 2.475 3.371 4.071 4.988 4.240 2.612 1.452 0.491 0.028 0.000 0.000 0.000 -0.064 -0.348 -0.562 -1.304 -3.052 -3.293 -3.760 -3.106 -4.441 -6.403 -6.948 -6.945 -5.056 -3.255 -2.274 -2.060 -0.536 0.087 1.068 2.233 1.748 0.906 0.504 0.246 0.000 0.000 0.000 0.000 0.000 -0.032 -0.085 -0.458 -1.454 -2.283 -3.283 -4.168 -5.201 -5.230 -5.182 -4.276 -3.139 -2.408 -2.343 -2.318 -1.446 -0.946 -0.182 0.428 0.370 0.395 0.310 0.057 0.000 0.000 0.000 0.000 0.000 0.000 0.000 -0.044 -0.409 -0.338 -0.233 -0.410 -0.788 -0.814 -0.805 -0.814 -0.509 -0.498 -0.775 -0.976 -1.140 -1.039 -0.478 -0.253 -0.166 0.000 0.000 0.000 0.000 0.000 0.000 0.000 0.000 0.000 0.000 0.000 0.000 0.000 0.000 0.000 -0.099 -0.123 -0.153 -0.159 -0.191 -0.213 -0.283 -0.300 -0.091 -0.156 -0.253 -0.253 -0.045 0.000 0.000 0.000 0.000 0.000 0.000 0.000 0.000 0.000 0.000 0.000 0.000 0.000 0.000 0.000 0.000 0.000 0.000 0.000 0.000 0.000 0.000 0.000 0.000 0.000 0.000 0.000 0.000 0.000 0.000 0.000 0.000 0.000 