28 28
-0.024 0.000 0.000 0.000 0.000 0.000 0.000 0.000 0.000 0.000 0.000 0.000 0.000 0.000 0.000 0.000 0.000 0.000 0.000 0.000 0.000 0.000 0.000 0.000 0.000 0.000 0.000 0.000 0.000 0.000 0.000 0.000 0.000 0.000 0.000 0.000 0.013 0.133 0.133 0.133 0.047 0.003 0.000 0.000 0.000 0.000 0.000 0.000 0.000 0.000 0.000 0.000 0.000 0.000 0.000 0.000 0.000 0.000 0.000 0.000 0.000 0.000 0.000 0.000 0.203 0.253 0.253 0.253 0.253 0.136 0.005 0.000 0.128 -0.046 -0.174 -0.255 -0.084 0.000 0.000 0.000 0.000 0.000 0.000 0.000 0.000 0.000 0.000 0.000 0.000 0.000 0.000 0.000 0.254 0.321 1.003 1.714 1.796 2.241 2.405 2.137 1.841 1.104 0.739 -0.126 -0.178 -0.458 -0.841 -0.894 -0.603 -0.293 0.000 0.000 0.000 0.000 0.000 0.000 0.000 0.000 0.090 0.268 1.020 1.644 3.249 4.392 4.414 5.032 6.254 5.645 3.660 1.769 0.573 0.001 -0.975 -1.717 -2.521 -2.629 -1.914 -1.023 -0.091 -0.042 0.000 0.000 0.000 0.000 0.010 0.137 0.204 0.907 2.179 3.711 3.692 3.824 4.144 5.790 5.713 5.605 3.726 2.670 3.235 1.780 -0.772 -2.858 -4.536 -3.956 -3.128 -2.536 -0.887 -0.413 0.000 0.000 0.000 0.000 0.201 0.317 0.570 1.732 3.456 5.032 3.838 2.286 2.902 3.369 2.321 1.206 1.232 0.670 1.775 0.982 -0.657 -2.523 -4.746 -5.240 -4.819 -3.694 -1.841 -0.494 0.000 0.000 0.000 0.000 0.182 0.502 0.873 1.621 3.118 2.995 0.664 -0.465 -0.572 -1.512 -1.296 -1.288 0.159 0.766 1.882 1.599 0.613 -1.428 -4.193 -5.636 -5.867 -4.864 -2.505 -0.285 0.000 0.000 0.000 0.000 0.054 0.727 1.293 2.162 3.104 2.402 0.325 -0.982 -0.914 -1.032 -1.186 -0.633 0.195 -0.612 0.595 1.132 0.766 -1.310 -3.207 -6.040 -7.485 -6.432 -2.246 -0.266 0.000 0.000 0.000 0.000 0.035 0.686 1.704 2.041 1.804 -0.144 -2.136 -2.973 -2.774 -2.812 -1.541 -0.297 -1.325 -1.222 0.833 1.995 2.531 0.522 -1.463 -5.258 -6.709 -6.063 -2.515 -0.494 0.000 0.000 0.000 0.000 0.193 0.864 1.942 1.797 -0.171 -3.398 -6.313 -7.184 -6.356 -5.762 -5.544 -4.929 -4.138 -1.494 1.412 3.438 3.699 3.128 0.512 -2.392 -4.233 -3.373 -1.181 -0.033 0.000 0.000 0.000 0.000 0.029 0.507 1.089 1.211 -1.242 -4.314 -8.364 -10.692 -10.460 -9.813 -11.300 -9.319 -4.955 -1.529 2.081 4.048 5.046 4.793 3.409 0.200 -1.596 -1.617 -0.697 0.042 0.000 0.000 0.000 0.000 0.000 0.254 0.811 0.715 -2.237 -5.109 -8.612 -11.444 -11.997 -12.660 -13.094 -8.875 -4.196 -1.419 0.965 3.260 4.878 4.095 3.560 1.440 0.432 0.554 0.408 0.178 0.000 0.000 0.000 0.000 0.000 0.251 -0.130 -0.048 -2.441 -6.174 -9.481 -10.395 -10.604 -11.241 -7.565 -3.661 -2.421 0.969 0.997 1.307 1.169 2.094 1.764 0.945 0.724 0.847 0.624 0.071 0.000 0.000 0.000 0.000 0.068 0.352 -0.340 -0.618 -1.369 -4.416 -6.739 -6.543 -5.698 -5.779 -1.727 -1.054 -0.056 1.870 1.107 -1.184 -1.592 -1.640 -0.526 0.188 0.916 0.891 0.677 0.367 0.000 0.000 0.000 0.014 0.195 0.473 -0.021 -0.674 0.792 0.721 -1.019 -1.087 0.684 2.083 2.566 1.439 2.164 1.418 0.839 -1.546 -2.966 -2.632 -1.767 0.025 1.429 1.891 1.708 0.866 0.000 0.000 0.000 0.099 0.148 0.320 -0.110 0.347 2.575 3.762 4.576 5.732 7.462 8.867 7.463 6.014 2.889 1.722 2.933 0.350 -0.313 -0.476 0.006 1.151 2.328 2.992 2.288 0.829 0.020 0.000 0.000 0.170 -0.012 0.483 -0.591 -1.191 1.984 3.768 6.199 8.656 9.337 9.791 8.928 6.679 3.087 1.236 1.716 1.219 0.626 0.381 1.335 2.107 3.277 3.052 2.049 0.700 0.032 0.000 0.000 0.046 0.363 1.474 -0.320 -2.098 0.624 1.758 5.564 8.673 8.066 6.375 4.753 3.736 3.459 2.714 2.544 1.456 0.757 -0.520 0.674 1.677 3.353 2.730 1.180 0.264 0.000 0.000 0.000 -0.255 0.415 1.995 -0.145 -1.263 -0.940 -0.339 3.531 4.393 3.380 0.620 1.189 3.240 3.226 2.905 1.711 0.464 0.326 0.755 0.962 3.647 4.346 2.638 1.664 0.469 0.000 0.000 0.000 -0.164 0.655 1.748 0.666 -0.362 -0.631 -0.601 -0.167 1.667 1.277 1.283 1.616 2.675 2.136 0.611 0.130 -0.257 1.621 2.433 4.170 4.059 3.342 2.361 1.101 0.059 0.000 0.000 0.000 0.185 0.723 1.481 1.599 1.616 0.941 -0.301 -0.784 -0.575 -0.171 -0.174 -1.051 -1.828 -2.677 -1.956 -1.609 -0.496 1.115 2.228 3.111 3.215 2.761 1.479 0.350 0.000 0.000 0.000 0.000 0.025 0.361 0.872 2.148 2.604 2.806 1.828 0.610 -1.830 -2.758 -3.249 -4.275 -5.772 -5.976 -4.886 -2.989 -1.649 -0.660 0.160 1.215 1.684 1.041 0.265 0.011 0.000 0.000 0.000 0.000 0.000 0.001 0.630 1.219 1.503 1.312 0.552 -0.946 -3.014 -4.569 -6.070 -6.755 -7.066 -6.480 -4.566 -2.850 -1.400 -1.994 -0.671 0.509 0.554 0.501 0.107 0.000 0.000 0.000 0.000 0.000 0.000 0.000 0.132 0.062 -0.240 -0.808 -1.557 -1.583 -2.359 -3.396 -3.730 -3.767 -3.135 -3.003 -2.232 -1.434 -1.052 -1.321 -0.456 0.134 0.154 0.177 0.095 0.000 0.000 0.000 0.000 0.000 0.000 0.000 0.000 0.000 -0.072 -0.415 -0.568 -0.678 -0.734 -0.790 -0.831 -0.536 -0.377 -0.185 -0.270 -0.685 -0.791 -0.800 -0.172 0.000 0.000 0.000 0.000 0.000 0.000 0.000 0.000 0.000 0.000 0.000 0.000 0.000 0.000 0.000 0.000 0.000 0.000 0.000 0.000 0.000 0.000 0.000 0.000 0.000 0.000 0.000 0.000 0.000 0.000 0.000 0.000 0.000 0.000 0.000 0.000 0.000 0.000 0.000 0.000 0.000 0.000 0.000 0.000 0.000 0.000 0.000 0.000 0.000 0.000 0.000 0.000 0.000 0.000 0.000 0.000 0.000 0.000 0.000 0.000 0.000 0.000 0.000 