28 28
-0.001 0.000 0.000 0.000 0.000 0.000 0.000 0.000 0.000 0.000 0.000 0.000 0.000 0.000 0.000 0.000 0.000 0.000 0.000 0.000 0.000 0.000 0.000 0.000 0.000 0.000 0.000 0.000 0.000 0.000 0.000 0.000 0.000 0.000 0.000 0.000 0.000 0.000 0.000 0.020 0.124 0.010 0.103 0.127 0.061 0.000 0.000 0.000 0.000 0.000 0.000 0.000 0.000 0.000 0.000 0.000 0.000 0.000 0.000 0.000 0.000 0.000 0.000 0.000 0.000 0.008 0.270 0.677 0.720 0.840 1.838 2.328 2.501 2.856 3.153 2.293 1.302 1.308 0.451 0.007 0.000 0.000 0.000 0.000 0.000 0.000 0.000 0.000 0.000 0.000 0.000 0.000 0.030 0.001 0.350 0.951 1.350 2.251 4.496 5.405 6.704 7.441 7.036 5.531 3.909 2.630 1.450 0.798 0.322 0.005 0.000 0.000 0.000 0.000 0.000 0.000 0.000 0.000 0.000 0.000 0.071 0.013 0.392 1.316 2.310 4.091 6.132 6.844 9.226 10.617 9.253 6.640 5.101 2.891 1.351 0.708 0.223 0.003 0.000 0.000 0.000 0.000 0.000 0.000 0.000 0.000 0.000 0.000 0.071 0.104 0.701 1.750 3.357 5.366 6.202 7.939 10.560 9.324 6.996 4.676 3.171 1.744 0.841 0.366 0.189 0.000 0.000 0.000 0.000 0.000 0.000 0.000 0.000 0.000 0.000 -0.016 0.046 0.047 0.774 1.751 2.104 1.792 1.104 2.523 1.530 -1.146 -2.215 -1.313 -0.304 0.153 0.049 -0.169 0.066 0.016 0.000 0.000 0.000 0.000 0.000 0.000 0.000 0.000 0.000 -0.069 -0.075 -0.289 -0.819 -1.354 -2.483 -3.303 -2.911 -4.068 -6.955 -11.047 -10.307 -8.606 -5.596 -2.960 -1.553 -0.975 -0.630 0.014 0.000 0.000 0.000 0.000 0.000 0.000 0.000 0.000 -0.031 -0.090 -0.414 -2.105 -3.072 -4.686 -4.727 -3.185 -2.634 -4.070 -8.079 -11.519 -12.182 -10.809 -7.988 -5.036 -2.257 -1.503 -1.194 -0.612 -0.011 0.000 0.000 0.000 0.000 0.000 0.000 0.000 -0.036 -0.519 -1.505 -3.855 -5.018 -5.507 -3.728 -0.754 0.313 -1.582 -4.636 -7.246 -10.185 -10.913 -9.213 -5.580 -2.854 -1.748 -1.293 -0.865 -0.017 0.000 0.000 0.000 0.000 0.000 0.000 0.000 -0.228 -1.148 -2.559 -5.141 -6.212 -4.410 -0.688 2.502 3.944 0.565 -2.671 -5.298 -8.643 -10.411 -8.649 -5.406 -2.574 -1.168 -0.660 -0.644 -0.050 0.000 0.000 0.000 0.000 0.000 0.000 0.000 -0.664 -1.333 -3.513 -6.468 -5.589 -1.803 2.971 6.065 4.162 0.325 -1.429 -4.207 -8.479 -9.674 -7.113 -4.449 -1.440 -0.275 0.213 -0.073 -0.089 0.000 0.000 0.000 0.000 0.000 0.000 -0.128 -0.944 -1.414 -4.146 -5.464 -4.372 0.544 4.971 6.275 2.991 0.675 -1.154 -4.291 -8.342 -7.906 -4.363 -0.391 1.442 1.167 1.063 0.527 0.001 0.000 0.000 0.000 0.000 0.000 0.000 -0.145 -0.880 -1.631 -3.717 -4.267 -2.044 1.881 4.965 3.724 0.798 -1.148 -2.763 -6.122 -7.223 -5.289 -0.948 3.292 3.326 2.543 1.829 0.814 0.026 0.000 0.000 0.000 0.000 0.000 0.000 -0.255 -0.716 -1.239 -2.701 -3.085 -0.395 2.527 2.159 -0.574 -2.323 -3.179 -4.859 -6.851 -6.692 -2.693 2.661 7.160 6.076 3.433 2.017 1.153 0.108 0.000 0.000 0.000 0.000 0.000 0.000 -0.255 -0.307 -0.716 -1.330 -1.282 0.108 1.953 -0.222 -3.557 -4.566 -4.562 -6.224 -7.440 -6.641 -1.993 6.236 8.501 7.490 4.119 2.255 1.077 0.296 0.007 0.000 0.000 0.000 0.000 0.000 -0.128 0.031 0.227 0.893 0.997 2.319 2.138 0.244 -2.871 -2.605 -2.476 -5.320 -7.072 -5.754 0.440 7.804 9.085 7.349 4.453 2.135 1.006 0.451 0.010 0.000 0.000 0.000 0.000 0.000 -0.064 0.477 1.452 2.371 3.963 5.812 6.594 5.214 2.794 1.758 -0.620 -4.401 -6.221 -2.919 4.617 9.195 8.878 6.558 3.795 1.683 0.867 0.221 0.003 0.000 0.000 0.000 0.000 0.000 0.000 0.608 2.186 3.477 5.749 9.175 11.846 12.104 9.219 5.596 0.733 -2.182 -1.348 3.208 8.211 9.208 7.655 4.923 2.853 1.378 0.376 0.076 0.000 0.000 0.000 0.000 0.000 0.000 0.000 0.713 1.739 3.666 6.047 9.502 13.121 14.751 12.111 7.442 3.587 1.949 4.156 8.465 9.013 7.035 4.454 2.900 1.674 0.379 0.048 0.007 0.000 0.000 0.000 0.000 0.000 0.000 0.000 0.333 0.974 2.227 4.084 6.518 11.243 13.401 12.839 9.958 7.349 5.994 7.365 8.516 5.357 2.322 1.145 1.030 0.684 0.276 -0.030 0.000 0.000 0.000 0.000 0.000 0.000 0.000 0.000 0.047 0.230 0.595 1.353 2.286 5.156 8.520 9.534 7.996 5.562 4.506 4.658 2.655 0.306 -0.508 -0.643 0.094 0.320 0.069 -0.105 0.000 0.000 0.000 0.000 0.000 0.000 0.000 0.000 0.000 -0.194 -0.651 -0.933 -0.775 -0.481 0.316 -0.827 -2.488 -3.310 -4.372 -3.406 -2.627 -2.222 -1.839 -1.134 -0.412 0.044 -0.128 -0.146 0.000 0.000 0.000 0.000 0.000 0.000 0.000 0.000 -0.165 -0.736 -1.551 -1.820 -2.463 -2.625 -3.996 -6.737 -7.416 -7.829 -7.403 -5.317 -3.989 -3.004 -2.111 -1.459 -0.901 -0.547 -0.245 -0.130 0.000 0.000 0.000 0.000 0.000 0.000 0.000 0.000 -0.429 -1.029 -1.729 -2.057 -2.223 -2.462 -4.174 -7.017 -7.433 -7.581 -6.816 -4.941 -3.765 -2.384 -1.845 -1.450 -0.807 -0.629 -0.034 -0.001 0.000 0.000 0.000 0.000 0.000 0.000 0.000 0.000 -0.468 -1.048 -1.204 -1.236 -1.681 -2.093 -3.244 -4.860 -5.349 -4.829 -4.858 -3.698 -2.345 -1.771 -1.331 -0.508 -0.560 -0.319 0.000 0.000 0.000 0.000 0.000 0.000 0.000 0.000 0.000 0.000 0.000 -0.400 -0.454 -0.508 -0.514 -0.773 -1.706 -1.561 -1.060 -1.355 -1.349 -0.819 -0.376 -0.060 0.000 0.000 0.000 0.000 0.000 0.000 0.000 0.000 0.000 0.000 0.000 0.000 0.000 0.000 0.000 0.000 0.000 0.000 0.000 0.000 0.000 0.000 0.000 0.000 0.000 0.000 0.000 0.000 0.000 0.000 0.000 0.000 0.000 0.000 0.000 0.000 0.000 