28 28
0.037 0.000 0.000 0.000 0.000 0.000 0.000 0.000 0.000 0.000 0.000 0.000 0.000 0.000 0.000 0.000 0.000 0.000 0.000 0.000 0.000 0.000 0.000 0.000 0.000 0.000 0.000 0.000 0.000 0.000 0.000 0.000 0.000 0.000 0.000 0.000 0.000 0.000 0.000 0.000 0.000 0.000 0.000 0.000 0.000 0.000 0.000 0.000 0.000 0.000 0.000 0.000 0.000 0.000 0.000 0.000 0.000 0.000 0.000 0.000 0.000 0.000 0.000 0.000 0.000 0.000 0.000 0.000 0.000 0.000 0.000 0.000 0.000 0.000 0.000 0.000 0.000 0.000 0.000 0.000 0.000 0.000 0.000 0.000 0.000 0.000 0.000 0.000 0.000 0.000 0.000 0.000 0.061 0.265 0.150 0.405 0.931 1.632 1.926 2.401 2.696 2.256 1.721 1.104 0.719 0.508 0.144 0.015 0.000 0.000 0.000 0.000 0.000 0.000 0.000 0.000 0.000 0.021 0.219 0.346 0.974 1.016 0.905 2.193 3.650 2.720 1.332 -0.306 -0.262 -0.639 -0.421 -0.146 -0.450 -0.544 -0.164 0.158 -0.303 -0.079 -0.135 0.000 0.000 0.000 0.000 0.000 0.041 0.423 0.845 1.297 2.817 4.634 5.377 5.457 4.064 1.373 -2.158 -4.484 -4.072 -3.845 -4.653 -2.936 -2.197 -0.667 -1.693 -0.724 -0.619 -0.432 -0.181 0.000 0.000 0.000 0.000 0.177 0.470 1.232 2.295 4.134 5.485 6.739 6.265 5.426 2.598 -0.357 -0.324 -0.744 -0.495 0.146 -0.697 1.227 1.717 2.056 -0.897 -2.333 -1.354 -0.977 -0.415 -0.072 0.000 0.000 0.128 0.146 0.615 2.051 3.638 5.898 5.493 5.027 2.989 1.670 2.109 1.431 3.638 7.371 7.014 4.597 5.080 2.885 2.812 1.971 -0.510 -2.998 -1.580 -1.928 -0.766 -0.016 0.000 0.000 0.000 0.253 0.939 2.015 3.480 3.072 0.662 -0.658 -0.514 -2.253 -2.097 -1.169 2.497 6.073 8.356 9.231 6.042 3.854 1.802 0.242 -1.986 -3.747 -3.017 -2.960 -1.068 0.000 0.000 0.000 0.000 0.000 1.089 1.158 1.818 -0.032 -2.824 -5.658 -5.422 -6.899 -6.421 -4.446 0.651 5.756 9.865 8.724 3.704 2.067 1.363 -0.109 -2.190 -4.219 -3.765 -3.188 -0.908 -0.229 0.000 0.000 0.000 0.022 0.358 0.143 -0.237 -0.967 -3.982 -6.573 -10.861 -11.004 -10.889 -8.910 -2.314 4.250 8.339 6.765 4.745 0.700 -0.660 -1.719 -3.707 -4.288 -2.867 -1.539 -0.588 -0.152 -0.067 0.000 0.000 0.022 0.265 -0.162 -1.511 -2.454 -5.303 -7.201 -10.067 -11.425 -10.130 -7.853 -4.318 -0.035 2.661 3.733 2.172 0.018 -0.586 -1.769 -3.394 -3.056 -1.771 -1.264 -0.434 -0.118 -0.051 0.000 0.000 0.000 0.099 0.318 -1.059 -2.451 -4.271 -5.892 -6.621 -6.418 -5.220 -5.466 -4.010 -0.243 1.305 3.017 3.539 2.518 1.709 -0.511 -2.449 -2.155 -1.267 -0.726 -0.225 -0.014 0.000 0.000 0.000 0.000 0.006 0.188 -0.343 -1.199 -1.808 -2.164 -2.622 -1.632 -1.636 -1.408 -2.335 0.694 -1.049 -0.546 3.650 4.878 2.436 1.411 -0.784 -1.153 -0.694 -0.480 -0.194 0.000 0.000 0.000 0.000 0.000 0.000 0.140 0.180 0.523 0.582 0.517 -0.842 -0.153 -2.978 -3.511 -4.252 -2.406 -1.100 0.290 2.584 5.618 6.844 5.379 1.603 0.140 -0.070 -0.156 -0.307 0.000 0.000 0.000 0.000 0.006 0.002 0.139 1.009 1.026 0.330 -0.415 -1.228 -3.178 -4.512 -4.996 -6.841 -4.062 -1.990 0.312 3.201 6.572 9.048 8.331 4.113 1.181 0.027 0.017 -0.276 0.000 0.000 0.000 0.000 0.175 0.326 1.311 1.715 0.269 -1.577 -4.325 -4.320 -8.543 -9.628 -9.734 -7.218 -4.093 -2.171 -2.570 1.933 5.259 7.807 8.121 5.567 1.759 0.213 0.151 -0.163 0.000 0.000 0.000 0.000 0.220 0.817 2.283 1.855 0.325 -3.124 -7.520 -9.736 -13.084 -12.855 -10.798 -7.484 -5.106 -1.139 -0.104 2.557 4.958 5.109 5.935 5.961 1.909 0.236 -0.421 -0.040 0.000 0.000 0.000 0.000 0.200 1.370 3.755 3.366 -0.000 -5.697 -9.435 -12.094 -14.565 -13.042 -10.994 -7.640 -3.755 1.091 3.895 5.463 6.157 5.330 5.407 5.458 1.164 -0.591 -0.701 0.000 0.000 0.000 0.000 0.000 0.484 2.147 6.361 5.877 1.232 -4.156 -5.941 -9.403 -10.346 -10.363 -8.606 -3.661 1.335 3.845 5.861 9.045 7.244 4.914 5.322 3.775 -0.036 -1.124 -0.780 0.000 0.000 0.000 0.000 0.000 0.675 3.137 7.365 7.537 4.491 -0.660 -1.844 -2.657 -3.802 -3.069 -2.686 1.784 5.171 5.258 7.750 7.397 5.220 4.288 3.506 1.422 -0.905 -1.299 -0.758 -0.128 0.000 0.000 0.000 0.000 0.408 2.169 5.238 6.711 5.384 3.235 2.634 2.472 2.392 2.740 1.255 1.992 2.471 4.673 4.877 3.536 2.825 2.244 0.720 -0.770 -1.519 -1.346 -0.388 -0.128 0.000 0.000 0.000 0.000 0.266 0.953 3.218 5.469 6.163 6.052 4.022 3.245 2.692 0.590 -2.844 -3.194 -2.444 -0.771 0.188 1.185 0.890 -0.357 -1.501 -1.455 -1.411 -0.829 -0.339 -0.128 0.000 0.000 0.000 0.000 0.138 0.708 3.045 4.656 7.011 6.814 4.545 2.758 1.146 0.087 -2.324 -3.720 -3.150 -3.038 -1.882 -2.441 -2.293 -2.624 -1.832 -1.278 -0.917 -0.492 -0.053 0.000 0.000 0.000 0.000 0.000 0.031 0.409 1.706 2.824 5.279 5.683 4.818 2.714 2.434 2.677 2.924 2.500 2.283 -0.635 -1.120 -1.344 -2.132 -1.637 -0.260 -0.039 -0.147 -0.136 -0.012 0.000 0.000 0.000 0.000 0.000 0.000 0.000 0.110 0.596 1.481 2.185 3.073 3.623 4.381 4.990 5.175 3.246 1.714 0.996 0.827 0.136 0.222 0.731 0.346 0.115 0.000 0.000 0.000 0.000 0.000 0.000 0.000 0.000 0.000 0.000 0.000 0.032 0.064 0.064 0.151 0.319 0.670 0.903 0.743 0.899 0.796 0.569 0.409 0.338 0.091 0.000 0.000 0.000 0.000 0.000 0.000 0.000 0.000 0.000 0.000 0.000 0.000 0.000 0.000 0.000 0.000 0.000 0.000 0.000 0.000 0.000 0.000 0.000 0.000 0.000 0.000 0.000 0.000 0.000 0.000 0.000 0.000 0.000 0.000 0.000 0.000 0.000 