28 28
-0.005 0.000 0.000 0.000 0.000 0.000 0.000 0.000 0.000 0.000 0.000 0.000 0.000 0.000 0.000 0.000 0.000 0.000 0.000 0.000 0.000 0.000 0.000 0.000 0.000 0.000 0.000 0.000 0.000 0.000 0.000 0.000 0.000 0.000 0.000 0.000 0.000 0.000 0.000 0.000 0.000 0.000 0.000 0.000 0.000 0.000 0.000 0.000 0.000 0.000 0.000 0.000 0.000 0.000 0.000 0.000 0.000 0.000 0.000 0.000 0.000 0.000 0.000 0.000 0.000 0.000 0.016 0.088 0.215 0.249 0.175 0.258 0.293 0.165 0.114 0.022 0.000 0.000 0.000 0.000 0.000 0.000 0.000 0.000 0.000 0.000 0.000 0.000 0.000 0.000 0.073 0.110 0.209 0.288 0.577 1.241 1.662 1.984 2.069 1.819 1.281 1.002 0.640 0.456 0.182 0.033 0.000 0.000 0.000 0.000 0.000 0.000 0.000 0.000 0.000 0.000 0.000 0.051 0.437 0.647 0.781 1.010 1.468 1.995 2.607 4.196 5.113 5.842 5.490 4.700 3.494 2.199 1.136 0.701 0.226 0.001 0.000 0.000 0.000 0.000 0.000 0.000 0.000 0.000 0.000 0.013 0.642 1.079 1.512 1.956 2.485 3.485 4.729 6.194 6.729 7.296 6.519 5.853 5.097 3.963 2.223 1.757 1.184 0.144 0.000 0.000 0.000 0.000 0.000 0.000 0.000 0.000 0.000 0.038 0.498 0.961 1.308 1.839 3.383 3.944 4.795 4.606 3.989 4.433 4.319 3.496 2.365 0.580 1.074 1.184 1.347 0.430 0.026 0.000 0.000 0.000 0.000 0.000 0.000 0.000 -0.004 0.198 0.010 0.208 0.365 0.354 0.872 0.700 0.600 -1.044 -0.790 -0.863 -0.628 -0.632 -2.349 -2.688 -2.158 -1.421 0.037 0.140 -0.280 -0.199 0.000 0.000 0.000 0.000 0.000 0.000 -0.161 -0.049 -0.503 0.013 -0.404 -0.376 -1.180 -1.820 -2.547 -3.449 -3.304 -4.475 -4.822 -4.178 -4.058 -3.836 -3.238 -2.256 -1.148 -0.774 -0.566 -0.373 0.000 0.000 0.000 0.000 0.000 0.000 -0.249 -0.537 0.076 -0.001 -1.005 -2.697 -3.973 -3.786 -3.453 -4.271 -3.747 -4.073 -3.842 -3.976 -3.120 -3.325 -2.713 -1.834 -1.575 -0.693 -0.311 -0.223 0.000 0.000 0.000 0.000 0.000 0.000 -0.279 -0.582 -0.073 0.279 -0.767 -2.497 -3.904 -3.729 -3.079 -3.219 -3.140 -2.102 -1.677 -3.365 -2.995 -3.084 -1.459 -0.672 -0.755 0.226 0.590 0.036 0.000 0.000 0.000 0.000 0.000 0.000 -0.224 -0.266 0.148 -0.335 -1.319 -2.813 -3.481 -3.307 -2.360 -1.755 -1.200 -0.439 -0.564 -2.878 -3.645 -2.474 -1.099 -0.347 -0.129 0.986 0.626 0.041 0.000 -0.009 -0.018 0.000 0.000 -0.026 -0.270 -0.132 -0.357 -1.235 -1.559 -2.757 -2.940 -1.645 -0.707 0.279 0.773 0.024 -1.977 -2.807 -3.553 -1.622 -0.331 -0.053 0.485 0.937 0.595 -0.127 -0.285 -0.137 -0.067 0.000 0.000 -0.009 -0.086 -0.182 -0.617 -1.201 -1.480 -1.689 -0.468 0.435 0.624 1.262 1.496 -0.012 -2.904 -3.546 -2.404 -0.535 -0.771 -0.461 0.124 0.556 0.663 0.124 -0.126 0.000 0.000 0.000 0.000 0.000 -0.085 -0.346 -0.239 -0.345 -0.456 0.263 1.282 1.974 2.195 2.424 2.490 0.268 -2.003 -2.622 -1.163 -0.173 -1.068 -0.801 -0.444 -0.001 0.164 0.239 0.041 0.000 0.000 0.000 0.000 0.000 -0.150 -0.250 -0.199 0.377 0.615 0.958 0.774 0.845 1.966 2.961 2.766 0.546 -1.719 -1.685 -0.427 -1.282 -1.719 -0.856 -0.657 -0.299 -0.139 0.089 0.199 0.000 0.000 0.000 0.000 0.000 -0.214 -0.272 0.158 1.285 1.231 1.226 1.162 2.425 3.174 2.661 1.496 -1.370 -1.559 -0.163 -0.197 -0.650 -0.846 0.012 0.204 0.394 0.358 0.078 0.102 0.008 0.000 0.000 0.000 0.000 -0.123 0.082 0.881 2.092 2.242 2.275 2.836 4.473 3.010 2.106 0.321 -1.228 -0.926 1.257 0.472 1.246 1.254 1.603 1.756 1.591 1.118 0.762 0.497 0.157 0.000 0.000 0.000 0.000 0.252 0.492 1.400 2.954 3.797 4.325 5.062 6.367 4.637 1.991 0.876 1.817 1.477 1.548 0.847 2.549 2.762 3.035 3.307 2.841 2.277 1.477 0.524 0.015 0.000 0.000 0.000 0.000 0.320 0.619 2.214 3.859 4.918 5.825 5.564 5.639 4.333 2.593 2.541 2.597 2.738 2.361 2.071 4.129 5.139 5.288 4.680 4.010 3.281 1.839 0.605 0.000 0.000 0.000 0.000 0.000 0.461 0.924 2.253 3.689 4.629 5.155 5.406 4.686 4.493 3.951 3.150 2.046 1.113 1.603 2.511 5.126 5.281 5.406 4.539 3.933 3.365 2.181 0.290 0.000 0.000 0.000 0.000 0.000 0.404 0.986 2.056 3.451 3.501 3.516 3.912 4.288 3.593 2.486 1.585 -0.022 -1.200 -0.532 1.043 3.909 4.996 4.910 4.009 3.250 2.403 0.884 0.141 0.000 0.000 0.000 0.000 0.000 0.071 0.732 1.340 1.662 1.350 1.518 2.218 2.176 0.198 -0.349 -0.924 -2.090 -2.475 -1.562 0.025 2.515 3.178 3.476 2.473 1.620 1.104 0.305 0.000 0.000 0.000 0.000 0.000 0.000 0.000 0.123 -0.109 -0.687 -1.500 -0.900 -0.663 -2.466 -3.703 -3.298 -2.689 -2.737 -2.259 -1.494 -0.100 0.881 1.764 2.122 1.496 0.886 0.270 -0.105 0.000 0.000 0.000 0.000 0.000 0.000 -0.085 -0.257 -0.905 -1.626 -2.591 -2.785 -3.232 -4.858 -4.470 -4.202 -4.500 -4.421 -3.470 -2.509 -1.428 -0.400 0.205 0.623 0.603 0.605 0.463 0.324 0.170 0.000 0.000 0.000 0.000 0.000 -0.117 -0.243 -0.790 -1.117 -1.295 -2.001 -2.763 -3.917 -3.460 -2.726 -2.705 -3.104 -2.990 -2.463 -1.460 -0.999 -0.273 0.000 -0.069 -0.127 -0.031 0.000 0.000 0.000 0.000 0.000 0.000 0.000 0.000 0.000 -0.155 -0.098 -0.171 -0.576 -1.414 -1.877 -1.230 -0.843 -0.819 -0.933 -1.076 -0.989 -0.570 -0.295 0.000 0.000 -0.034 -0.128 -0.031 0.000 0.000 0.000 0.000 0.000 0.000 0.000 0.000 0.000 0.000 0.000 0.000 0.000 0.000 0.000 -0.012 -0.109 -0.126 -0.082 -0.001 0.000 0.000 0.000 0.000 0.000 -0.022 -0.122 -0.031 0.000 0.000 0.000 0.000 